<?xml version="1.0"?>
<MethodSetup Method="BDT::C3D2T50">
  <GeneralInfo>
    <Info name="TMVA Release" value="4.1.4 [262404]"/>
    <Info name="ROOT Release" value="5.34/09 [336393]"/>
    <Info name="Creator" value="jlang"/>
    <Info name="Date" value="Tue Dec  8 16:30:03 2015"/>
    <Info name="Host" value="Linux ekpams2 2.6.32-504.16.2.el6.x86_64 #1 SMP Tue Apr 21 21:44:51 CEST 2015 x86_64 x86_64 x86_64 GNU/Linux"/>
    <Info name="Dir" value="/usr/users/jlang/BDT/Test/BDT_Training"/>
    <Info name="Training events" value="1332"/>
    <Info name="TrainingTime" value="6.45589828e-02"/>
    <Info name="AnalysisType" value="Classification"/>
  </GeneralInfo>
  <Options>
    <Option name="V" modified="Yes">True</Option>
    <Option name="VerbosityLevel" modified="No">Verbose</Option>
    <Option name="VarTransform" modified="No">None</Option>
    <Option name="H" modified="Yes">False</Option>
    <Option name="CreateMVAPdfs" modified="No">False</Option>
    <Option name="IgnoreNegWeightsInTraining" modified="No">False</Option>
    <Option name="NTrees" modified="Yes">50</Option>
    <Option name="RenormByClass" modified="No">False</Option>
    <Option name="BoostType" modified="Yes">Grad</Option>
    <Option name="AdaBoostR2Loss" modified="No">quadratic</Option>
    <Option name="UseBaggedGrad" modified="No">False</Option>
    <Option name="GradBaggingFraction" modified="No">6.000000e-01</Option>
    <Option name="Shrinkage" modified="No">1.000000e+00</Option>
    <Option name="AdaBoostBeta" modified="No">1.000000e+00</Option>
    <Option name="UseRandomisedTrees" modified="No">False</Option>
    <Option name="UseNvars" modified="No">2</Option>
    <Option name="UsePoissonNvars" modified="No">True</Option>
    <Option name="UseNTrainEvents" modified="No">1332</Option>
    <Option name="UseWeightedTrees" modified="No">True</Option>
    <Option name="UseYesNoLeaf" modified="No">True</Option>
    <Option name="NodePurityLimit" modified="No">5.000000e-01</Option>
    <Option name="SeparationType" modified="Yes">giniindex</Option>
    <Option name="nEventsMin" modified="Yes">10</Option>
    <Option name="nCuts" modified="Yes">3</Option>
    <Option name="UseFisherCuts" modified="No">False</Option>
    <Option name="MinLinCorrForFisher" modified="No">8.000000e-01</Option>
    <Option name="UseExclusiveVars" modified="No">False</Option>
    <Option name="PruneStrength" modified="No">0.000000e+00</Option>
    <Option name="PruneMethod" modified="No">nopruning</Option>
    <Option name="PruneBeforeBoost" modified="No">False</Option>
    <Option name="PruningValFraction" modified="No">5.000000e-01</Option>
    <Option name="NNodesMax" modified="No">100000</Option>
    <Option name="MaxDepth" modified="Yes">2</Option>
    <Option name="DoBoostMonitor" modified="No">False</Option>
    <Option name="NegWeightTreatment" modified="No">ignorenegweights</Option>
  </Options>
  <Variables NVar="4">
    <Variable VarIndex="0" Expression="v0" Label="v0" Title="v0" Unit="" Internal="v0" Type="F" Min="-4.90635514e-01" Max="1.48405468e+00"/>
    <Variable VarIndex="1" Expression="v1" Label="v1" Title="v1" Unit="" Internal="v1" Type="F" Min="-7.37883806e+00" Max="7.25839615e+00"/>
    <Variable VarIndex="2" Expression="v2" Label="v2" Title="v2" Unit="" Internal="v2" Type="F" Min="-1.89865696e+00" Max="6.20265913e+00"/>
    <Variable VarIndex="3" Expression="v3" Label="v3" Title="v3" Unit="" Internal="v3" Type="F" Min="1.46819293e+00" Max="2.39548111e+00"/>
  </Variables>
  <Spectators NSpec="0"/>
  <Classes NClass="2">
    <Class Name="Signal" Index="0"/>
    <Class Name="Background" Index="1"/>
  </Classes>
  <Transformations NTransformations="0"/>
  <MVAPdfs/>
  <Weights NTrees="50" AnalysisType="1">
    <BinaryTree type="DecisionTree" boostWeight="1.0000000000000000e+00" itree="0">
      <Node pos="s" depth="0" NCoef="0" IVar="3" Cut="1.9318370819091797e+00" cType="0" res="0.0000000000000000e+00" rms="5.0000000000000000e-01" purity="5.0000000000000000e-01" nType="0">
        <Node pos="l" depth="1" NCoef="0" IVar="3" Cut="2.0477733612060547e+00" cType="0" res="4.9411764740943909e-01" rms="7.6470591127872467e-02" purity="9.9411761760711670e-01" nType="0">
          <Node pos="l" depth="2" NCoef="0" IVar="-1" Cut="0.0000000000000000e+00" cType="1" res="1.0000000000000000e+00" rms="0.0000000000000000e+00" purity="1.0000000000000000e+00" nType="-99"/>
          <Node pos="r" depth="2" NCoef="0" IVar="-1" Cut="0.0000000000000000e+00" cType="1" res="9.6319019794464111e-01" rms="1.3441044092178345e-01" purity="9.8159509897232056e-01" nType="-99"/>
        </Node>
        <Node pos="r" depth="1" NCoef="0" IVar="3" Cut="1.8154647350311279e+00" cType="0" res="-3.0656933784484863e-01" rms="3.9498764276504517e-01" purity="1.9343066215515137e-01" nType="0">
          <Node pos="l" depth="2" NCoef="0" IVar="-1" Cut="0.0000000000000000e+00" cType="1" res="-3.8216561079025269e-02" rms="4.9963474273681641e-01" purity="4.8089173436164856e-01" nType="-99"/>
          <Node pos="r" depth="2" NCoef="0" IVar="-1" Cut="0.0000000000000000e+00" cType="1" res="-9.6850395202636719e-01" rms="1.2449911981821060e-01" purity="1.5748031437397003e-02" nType="-99"/>
        </Node>
      </Node>
    </BinaryTree>
    <BinaryTree type="DecisionTree" boostWeight="1.0000000000000000e+00" itree="1">
      <Node pos="s" depth="0" NCoef="0" IVar="0" Cut="4.9670958518981934e-01" cType="1" res="2.3197834379971027e-03" rms="2.7703335881233215e-01" purity="5.0000000000000000e-01" nType="0">
        <Node pos="l" depth="1" NCoef="0" IVar="3" Cut="1.7000149488449097e+00" cType="0" res="8.6748145520687103e-02" rms="2.6982313394546509e-01" purity="6.8946647644042969e-01" nType="0">
          <Node pos="l" depth="2" NCoef="0" IVar="-1" Cut="0.0000000000000000e+00" cType="1" res="4.2896932363510132e-01" rms="2.7631586790084839e-01" purity="8.1685572862625122e-01" nType="-99"/>
          <Node pos="r" depth="2" NCoef="0" IVar="-1" Cut="0.0000000000000000e+00" cType="1" res="-5.7206726074218750e-01" rms="0.0000000000000000e+00" purity="0.0000000000000000e+00" nType="-99"/>
        </Node>
        <Node pos="r" depth="1" NCoef="0" IVar="3" Cut="1.9294254779815674e+00" cType="0" res="-1.0037095099687576e-01" rms="2.4965563416481018e-01" purity="2.6955074071884155e-01" nType="0">
          <Node pos="l" depth="2" NCoef="0" IVar="-1" Cut="0.0000000000000000e+00" cType="1" res="5.4245036840438843e-01" rms="9.4292461872100830e-02" purity="9.9224805831909180e-01" nType="-99"/>
          <Node pos="r" depth="2" NCoef="0" IVar="-1" Cut="0.0000000000000000e+00" cType="1" res="-5.2694928646087646e-01" rms="2.4573223292827606e-01" purity="7.2033897042274475e-02" nType="-99"/>
        </Node>
      </Node>
    </BinaryTree>
    <BinaryTree type="DecisionTree" boostWeight="1.0000000000000000e+00" itree="2">
      <Node pos="s" depth="0" NCoef="0" IVar="2" Cut="2.1520011425018311e+00" cType="0" res="-5.2807065658271313e-03" rms="2.3849369585514069e-01" purity="5.0000000000000000e-01" nType="0">
        <Node pos="l" depth="1" NCoef="0" IVar="3" Cut="1.7189283370971680e+00" cType="0" res="5.7922646403312683e-02" rms="2.3719297349452972e-01" purity="7.0491802692413330e-01" nType="0">
          <Node pos="l" depth="2" NCoef="0" IVar="-1" Cut="0.0000000000000000e+00" cType="1" res="3.8874295353889465e-01" rms="2.5144338607788086e-01" purity="8.2692307233810425e-01" nType="-99"/>
          <Node pos="r" depth="2" NCoef="0" IVar="-1" Cut="0.0000000000000000e+00" cType="1" res="-5.4316133260726929e-01" rms="3.7148844450712204e-02" purity="0.0000000000000000e+00" nType="-99"/>
        </Node>
        <Node pos="r" depth="1" NCoef="0" IVar="3" Cut="1.9280505180358887e+00" cType="0" res="-5.8679658919572830e-02" rms="2.2622013092041016e-01" purity="3.2686981558799744e-01" nType="0">
          <Node pos="l" depth="2" NCoef="0" IVar="-1" Cut="0.0000000000000000e+00" cType="1" res="3.8630285859107971e-01" rms="1.1559484899044037e-01" purity="9.8437500000000000e-01" nType="-99"/>
          <Node pos="r" depth="2" NCoef="0" IVar="-1" Cut="0.0000000000000000e+00" cType="1" res="-4.5971676707267761e-01" rms="2.4507156014442444e-01" purity="8.8679246604442596e-02" nType="-99"/>
        </Node>
      </Node>
    </BinaryTree>
    <BinaryTree type="DecisionTree" boostWeight="1.0000000000000000e+00" itree="3">
      <Node pos="s" depth="0" NCoef="0" IVar="0" Cut="9.9038213491439819e-01" cType="1" res="-2.6637995615601540e-03" rms="2.2057700157165527e-01" purity="5.0000000000000000e-01" nType="0">
        <Node pos="l" depth="1" NCoef="0" IVar="2" Cut="4.3037843704223633e+00" cType="0" res="4.8044463619589806e-03" rms="2.2849904000759125e-01" purity="5.6381118297576904e-01" nType="0">
          <Node pos="l" depth="2" NCoef="0" IVar="-1" Cut="0.0000000000000000e+00" cType="1" res="6.5523946285247803e-01" rms="1.9314998388290405e-01" purity="9.3333333730697632e-01" nType="-99"/>
          <Node pos="r" depth="2" NCoef="0" IVar="-1" Cut="0.0000000000000000e+00" cType="1" res="4.6847094781696796e-03" rms="2.2885552048683167e-01" purity="5.4868060350418091e-01" nType="-99"/>
        </Node>
        <Node pos="r" depth="1" NCoef="0" IVar="2" Cut="3.2564845085144043e+00" cType="0" res="-4.8108872026205063e-02" rms="1.5684773027896881e-01" purity="1.1170212924480438e-01" nType="0">
          <Node pos="l" depth="2" NCoef="0" IVar="-1" Cut="0.0000000000000000e+00" cType="1" res="-7.0590287446975708e-01" rms="1.8578730523586273e-01" purity="3.1250000000000000e-01" nType="-99"/>
          <Node pos="r" depth="2" NCoef="0" IVar="-1" Cut="0.0000000000000000e+00" cType="1" res="-3.7596815824508667e-01" rms="1.5081427991390228e-01" purity="9.3023255467414856e-02" nType="-99"/>
        </Node>
      </Node>
    </BinaryTree>
    <BinaryTree type="DecisionTree" boostWeight="1.0000000000000000e+00" itree="4">
      <Node pos="s" depth="0" NCoef="0" IVar="3" Cut="1.9318370819091797e+00" cType="0" res="-5.5138656171038747e-04" rms="2.1624147891998291e-01" purity="5.0000000000000000e-01" nType="0">
        <Node pos="l" depth="1" NCoef="0" IVar="3" Cut="2.0477733612060547e+00" cType="0" res="1.9065408036112785e-02" rms="7.6818987727165222e-02" purity="9.9411761760711670e-01" nType="0">
          <Node pos="l" depth="2" NCoef="0" IVar="-1" Cut="0.0000000000000000e+00" cType="1" res="5.1372319459915161e-01" rms="7.0738345384597778e-03" purity="1.0000000000000000e+00" nType="-99"/>
          <Node pos="r" depth="2" NCoef="0" IVar="-1" Cut="0.0000000000000000e+00" cType="1" res="1.4331720769405365e-01" rms="1.3470998406410217e-01" purity="9.8159509897232056e-01" nType="-99"/>
        </Node>
        <Node pos="r" depth="1" NCoef="0" IVar="0" Cut="1.7395034432411194e-02" cType="1" res="-1.2722389772534370e-02" rms="2.6781356334686279e-01" purity="1.9343066215515137e-01" nType="0">
          <Node pos="l" depth="2" NCoef="0" IVar="-1" Cut="0.0000000000000000e+00" cType="1" res="1.6004358232021332e-01" rms="3.4023013710975647e-01" purity="5.0999999046325684e-01" nType="-99"/>
          <Node pos="r" depth="2" NCoef="0" IVar="-1" Cut="0.0000000000000000e+00" cType="1" res="-1.3527303934097290e-01" rms="2.5521537661552429e-01" purity="1.4958448708057404e-01" nType="-99"/>
        </Node>
      </Node>
    </BinaryTree>
    <BinaryTree type="DecisionTree" boostWeight="1.0000000000000000e+00" itree="5">
      <Node pos="s" depth="0" NCoef="0" IVar="2" Cut="1.2667205929756165e-01" cType="0" res="2.1334979683160782e-03" rms="2.1470512449741364e-01" purity="5.0000000000000000e-01" nType="0">
        <Node pos="l" depth="1" NCoef="0" IVar="3" Cut="1.7000149488449097e+00" cType="0" res="4.7969021834433079e-03" rms="2.1998374164104462e-01" purity="5.2931725978851318e-01" nType="0">
          <Node pos="l" depth="2" NCoef="0" IVar="-1" Cut="0.0000000000000000e+00" cType="1" res="7.7526710927486420e-02" rms="2.5038185715675354e-01" purity="6.8717414140701294e-01" nType="-99"/>
          <Node pos="r" depth="2" NCoef="0" IVar="-1" Cut="0.0000000000000000e+00" cType="1" res="-5.0792729854583740e-01" rms="5.7278885506093502e-03" purity="0.0000000000000000e+00" nType="-99"/>
        </Node>
        <Node pos="r" depth="1" NCoef="0" IVar="1" Cut="1.4205123186111450e+00" cType="0" res="-3.5980734974145889e-02" rms="1.0820469260215759e-01" purity="8.0459773540496826e-02" nType="0">
          <Node pos="l" depth="2" NCoef="0" IVar="-1" Cut="0.0000000000000000e+00" cType="1" res="4.8744457960128784e-01" rms="1.8621852993965149e-01" purity="1.0000000149011612e-01" nType="-99"/>
          <Node pos="r" depth="2" NCoef="0" IVar="-1" Cut="0.0000000000000000e+00" cType="1" res="-6.1089223623275757e-01" rms="8.8615395128726959e-02" purity="7.7922075986862183e-02" nType="-99"/>
        </Node>
      </Node>
    </BinaryTree>
    <BinaryTree type="DecisionTree" boostWeight="1.0000000000000000e+00" itree="6">
      <Node pos="s" depth="0" NCoef="0" IVar="0" Cut="4.9670958518981934e-01" cType="1" res="-1.9279720727354288e-03" rms="2.1304279565811157e-01" purity="5.0000000000000000e-01" nType="0">
        <Node pos="l" depth="1" NCoef="0" IVar="0" Cut="-2.4381221830844879e-01" cType="1" res="-9.1387908905744553e-03" rms="2.2553114593029022e-01" purity="6.8946647644042969e-01" nType="0">
          <Node pos="l" depth="2" NCoef="0" IVar="-1" Cut="0.0000000000000000e+00" cType="1" res="3.4077566862106323e-01" rms="1.9118344783782959e-01" purity="8.6516851186752319e-01" nType="-99"/>
          <Node pos="r" depth="2" NCoef="0" IVar="-1" Cut="0.0000000000000000e+00" cType="1" res="-1.3351254165172577e-01" rms="2.2912500798702240e-01" purity="6.6510903835296631e-01" nType="-99"/>
        </Node>
        <Node pos="r" depth="1" NCoef="0" IVar="0" Cut="7.4413055181503296e-01" cType="1" res="6.8425908684730530e-03" rms="1.9643136858940125e-01" purity="2.6955074071884155e-01" nType="0">
          <Node pos="l" depth="2" NCoef="0" IVar="-1" Cut="0.0000000000000000e+00" cType="1" res="2.9547744989395142e-01" rms="2.3616899549961090e-01" purity="3.7656903266906738e-01" nType="-99"/>
          <Node pos="r" depth="2" NCoef="0" IVar="-1" Cut="0.0000000000000000e+00" cType="1" res="-8.9595735073089600e-02" rms="1.6371840238571167e-01" purity="1.9889502227306366e-01" nType="-99"/>
        </Node>
      </Node>
    </BinaryTree>
    <BinaryTree type="DecisionTree" boostWeight="1.0000000000000000e+00" itree="7">
      <Node pos="s" depth="0" NCoef="0" IVar="1" Cut="-6.0220956802368164e-02" cType="1" res="-7.6386582804843783e-05" rms="2.0936205983161926e-01" purity="5.0000000000000000e-01" nType="0">
        <Node pos="l" depth="1" NCoef="0" IVar="3" Cut="1.9090085029602051e+00" cType="0" res="5.5131376720964909e-03" rms="2.0816549658775330e-01" purity="5.0844591856002808e-01" nType="0">
          <Node pos="l" depth="2" NCoef="0" IVar="-1" Cut="0.0000000000000000e+00" cType="1" res="3.8636994361877441e-01" rms="1.6087915003299713e-01" purity="9.6108949184417725e-01" nType="-99"/>
          <Node pos="r" depth="2" NCoef="0" IVar="-1" Cut="0.0000000000000000e+00" cType="1" res="-6.4317278563976288e-02" rms="2.3723165690898895e-01" purity="1.6119402647018433e-01" nType="-99"/>
        </Node>
        <Node pos="r" depth="1" NCoef="0" IVar="1" Cut="1.7724170684814453e+00" cType="0" res="-4.5480057597160339e-03" rms="2.1020741760730743e-01" purity="4.9324324727058411e-01" nType="0">
          <Node pos="l" depth="2" NCoef="0" IVar="-1" Cut="0.0000000000000000e+00" cType="1" res="2.4561820924282074e-01" rms="2.2691299021244049e-01" purity="6.1111110448837280e-01" nType="-99"/>
          <Node pos="r" depth="2" NCoef="0" IVar="-1" Cut="0.0000000000000000e+00" cType="1" res="-1.1192998290061951e-01" rms="2.0598427951335907e-01" purity="4.6905538439750671e-01" nType="-99"/>
        </Node>
      </Node>
    </BinaryTree>
    <BinaryTree type="DecisionTree" boostWeight="1.0000000000000000e+00" itree="8">
      <Node pos="s" depth="0" NCoef="0" IVar="2" Cut="4.1773300170898438e+00" cType="0" res="5.8072461979463696e-04" rms="2.0696610212326050e-01" purity="5.0000000000000000e-01" nType="0">
        <Node pos="l" depth="1" NCoef="0" IVar="0" Cut="3.3016405999660492e-02" cType="0" res="2.5761159136891365e-02" rms="1.8220242857933044e-01" purity="8.7931036949157715e-01" nType="0">
          <Node pos="l" depth="2" NCoef="0" IVar="-1" Cut="0.0000000000000000e+00" cType="1" res="3.7183272838592529e-01" rms="1.6369864344596863e-01" purity="8.8095235824584961e-01" nType="-99"/>
          <Node pos="r" depth="2" NCoef="0" IVar="-1" Cut="0.0000000000000000e+00" cType="1" res="-4.4774448871612549e-01" rms="2.1462075412273407e-01" purity="8.7500000000000000e-01" nType="-99"/>
        </Node>
        <Node pos="r" depth="1" NCoef="0" IVar="2" Cut="2.6539924144744873e+00" cType="0" res="-5.6563742691650987e-04" rms="2.0795078575611115e-01" purity="4.8273155093193054e-01" nType="0">
          <Node pos="l" depth="2" NCoef="0" IVar="-1" Cut="0.0000000000000000e+00" cType="1" res="8.6979478597640991e-02" rms="2.1153886616230011e-01" purity="7.3278236389160156e-01" nType="-99"/>
          <Node pos="r" depth="2" NCoef="0" IVar="-1" Cut="0.0000000000000000e+00" cType="1" res="-5.0731603056192398e-02" rms="2.0636458694934845e-01" purity="3.8309550285339355e-01" nType="-99"/>
        </Node>
      </Node>
    </BinaryTree>
    <BinaryTree type="DecisionTree" boostWeight="1.0000000000000000e+00" itree="9">
      <Node pos="s" depth="0" NCoef="0" IVar="2" Cut="2.1520011425018311e+00" cType="0" res="3.1529745319858193e-04" rms="2.0624372363090515e-01" purity="5.0000000000000000e-01" nType="0">
        <Node pos="l" depth="1" NCoef="0" IVar="3" Cut="1.9444459676742554e+00" cType="0" res="-3.4246367868036032e-03" rms="2.1415461599826813e-01" purity="7.0491802692413330e-01" nType="0">
          <Node pos="l" depth="2" NCoef="0" IVar="-1" Cut="0.0000000000000000e+00" cType="1" res="5.0782752037048340e-01" rms="7.6684588566422462e-03" purity="1.0000000000000000e+00" nType="-99"/>
          <Node pos="r" depth="2" NCoef="0" IVar="-1" Cut="0.0000000000000000e+00" cType="1" res="-7.6089784502983093e-02" rms="3.0082941055297852e-01" purity="4.1558441519737244e-01" nType="-99"/>
        </Node>
        <Node pos="r" depth="1" NCoef="0" IVar="2" Cut="1.1382451057434082e+00" cType="0" res="3.4750755876302719e-03" rms="1.9926074147224426e-01" purity="3.2686981558799744e-01" nType="0">
          <Node pos="l" depth="2" NCoef="0" IVar="-1" Cut="0.0000000000000000e+00" cType="1" res="1.3873651623725891e-01" rms="2.3622630536556244e-01" purity="3.9808154106140137e-01" nType="-99"/>
          <Node pos="r" depth="2" NCoef="0" IVar="-1" Cut="0.0000000000000000e+00" cType="1" res="-1.2537355720996857e-01" rms="1.3202683627605438e-01" purity="2.2950819134712219e-01" nType="-99"/>
        </Node>
      </Node>
    </BinaryTree>
    <BinaryTree type="DecisionTree" boostWeight="1.0000000000000000e+00" itree="10">
      <Node pos="s" depth="0" NCoef="0" IVar="3" Cut="1.7000149488449097e+00" cType="0" res="5.0163437845185399e-04" rms="2.0555824041366577e-01" purity="5.0000000000000000e-01" nType="0">
        <Node pos="l" depth="1" NCoef="0" IVar="3" Cut="1.8742785453796387e+00" cType="0" res="2.2392773535102606e-03" rms="2.3696021735668182e-01" purity="6.6467064619064331e-01" nType="0">
          <Node pos="l" depth="2" NCoef="0" IVar="-1" Cut="0.0000000000000000e+00" cType="1" res="1.5972863137722015e-01" rms="2.0587772130966187e-01" purity="8.9323306083679199e-01" nType="-99"/>
          <Node pos="r" depth="2" NCoef="0" IVar="-1" Cut="0.0000000000000000e+00" cType="1" res="-9.7107939422130585e-02" rms="2.8743460774421692e-01" purity="2.1364985406398773e-01" nType="-99"/>
        </Node>
        <Node pos="r" depth="1" NCoef="0" IVar="1" Cut="2.0662097930908203e+00" cType="0" res="-4.7744819894433022e-03" rms="4.8993285745382309e-03" purity="0.0000000000000000e+00" nType="0">
          <Node pos="l" depth="2" NCoef="0" IVar="-1" Cut="0.0000000000000000e+00" cType="1" res="-5.1291805505752563e-01" rms="1.2514851056039333e-02" purity="0.0000000000000000e+00" nType="-99"/>
          <Node pos="r" depth="2" NCoef="0" IVar="-1" Cut="0.0000000000000000e+00" cType="1" res="-5.0374686717987061e-01" rms="3.6675373557955027e-03" purity="0.0000000000000000e+00" nType="-99"/>
        </Node>
      </Node>
    </BinaryTree>
    <BinaryTree type="DecisionTree" boostWeight="1.0000000000000000e+00" itree="11">
      <Node pos="s" depth="0" NCoef="0" IVar="2" Cut="4.1773300170898438e+00" cType="0" res="-3.7356361281126738e-04" rms="2.0357871055603027e-01" purity="5.0000000000000000e-01" nType="0">
        <Node pos="l" depth="1" NCoef="0" IVar="2" Cut="4.6873664855957031e+00" cType="0" res="1.0304463095963001e-02" rms="1.7840574681758881e-01" purity="8.7931036949157715e-01" nType="0">
          <Node pos="l" depth="2" NCoef="0" IVar="-1" Cut="0.0000000000000000e+00" cType="1" res="4.7913447022438049e-01" rms="1.3012669980525970e-01" purity="8.9285713434219360e-01" nType="-99"/>
          <Node pos="r" depth="2" NCoef="0" IVar="-1" Cut="0.0000000000000000e+00" cType="1" res="-1.9900712370872498e-01" rms="2.0978595316410065e-01" purity="8.6666667461395264e-01" nType="-99"/>
        </Node>
        <Node pos="r" depth="1" NCoef="0" IVar="2" Cut="2.6539924144744873e+00" cType="0" res="-8.5969042265787721e-04" rms="2.0463779568672180e-01" purity="4.8273155093193054e-01" nType="0">
          <Node pos="l" depth="2" NCoef="0" IVar="-1" Cut="0.0000000000000000e+00" cType="1" res="4.5456606894731522e-02" rms="2.0873378217220306e-01" purity="7.3278236389160156e-01" nType="-99"/>
          <Node pos="r" depth="2" NCoef="0" IVar="-1" Cut="0.0000000000000000e+00" cType="1" res="-3.5138346254825592e-02" rms="2.0294456183910370e-01" purity="3.8309550285339355e-01" nType="-99"/>
        </Node>
      </Node>
    </BinaryTree>
    <BinaryTree type="DecisionTree" boostWeight="1.0000000000000000e+00" itree="12">
      <Node pos="s" depth="0" NCoef="0" IVar="3" Cut="2.1636590957641602e+00" cType="0" res="1.7566997848916799e-04" rms="2.0310929417610168e-01" purity="5.0000000000000000e-01" nType="0">
        <Node pos="l" depth="1" NCoef="0" IVar="2" Cut="8.1810992956161499e-01" cType="0" res="3.7755905650556087e-03" rms="5.9978021308779716e-03" purity="1.0000000000000000e+00" nType="0">
          <Node pos="l" depth="2" NCoef="0" IVar="-1" Cut="0.0000000000000000e+00" cType="1" res="5.0231659412384033e-01" rms="2.2759099956601858e-03" purity="1.0000000000000000e+00" nType="-99"/>
          <Node pos="r" depth="2" NCoef="0" IVar="-1" Cut="0.0000000000000000e+00" cType="1" res="5.1455378532409668e-01" rms="1.4089016243815422e-02" purity="1.0000000000000000e+00" nType="-99"/>
        </Node>
        <Node pos="r" depth="1" NCoef="0" IVar="3" Cut="1.8157603740692139e+00" cType="0" res="-4.7915140748955309e-04" rms="2.2078949213027954e-01" purity="4.0905058383941650e-01" nType="0">
          <Node pos="l" depth="2" NCoef="0" IVar="-1" Cut="0.0000000000000000e+00" cType="1" res="4.0472161024808884e-02" rms="2.7977445721626282e-01" purity="7.3300969600677490e-01" nType="-99"/>
          <Node pos="r" depth="2" NCoef="0" IVar="-1" Cut="0.0000000000000000e+00" cType="1" res="-2.3620429635047913e-01" rms="1.1303886026144028e-01" purity="1.5717092901468277e-02" nType="-99"/>
        </Node>
      </Node>
    </BinaryTree>
    <BinaryTree type="DecisionTree" boostWeight="1.0000000000000000e+00" itree="13">
      <Node pos="s" depth="0" NCoef="0" IVar="1" Cut="-6.0220956802368164e-02" cType="1" res="-2.5424666819162667e-04" rms="2.0212860405445099e-01" purity="5.0000000000000000e-01" nType="0">
        <Node pos="l" depth="1" NCoef="0" IVar="0" Cut="9.9010503292083740e-01" cType="1" res="1.3989631552249193e-03" rms="2.0245710015296936e-01" purity="5.0844591856002808e-01" nType="0">
          <Node pos="l" depth="2" NCoef="0" IVar="-1" Cut="0.0000000000000000e+00" cType="1" res="-2.3749368265271187e-02" rms="2.0385441184043884e-01" purity="5.6835937500000000e-01" nType="-99"/>
          <Node pos="r" depth="2" NCoef="0" IVar="-1" Cut="0.0000000000000000e+00" cType="1" res="5.3011989593505859e-01" rms="1.9182546436786652e-01" purity="1.2500000000000000e-01" nType="-99"/>
        </Node>
        <Node pos="r" depth="1" NCoef="0" IVar="2" Cut="3.8237917423248291e+00" cType="0" res="-1.5768145676702261e-03" rms="2.0185567438602448e-01" purity="4.9324324727058411e-01" nType="0">
          <Node pos="l" depth="2" NCoef="0" IVar="-1" Cut="0.0000000000000000e+00" cType="1" res="3.1517654657363892e-01" rms="1.3023072481155396e-01" purity="8.8709676265716553e-01" nType="-99"/>
          <Node pos="r" depth="2" NCoef="0" IVar="-1" Cut="0.0000000000000000e+00" cType="1" res="-4.8533182591199875e-02" rms="2.0699577033519745e-01" purity="4.5722714066505432e-01" nType="-99"/>
        </Node>
      </Node>
    </BinaryTree>
    <BinaryTree type="DecisionTree" boostWeight="1.0000000000000000e+00" itree="14">
      <Node pos="s" depth="0" NCoef="0" IVar="0" Cut="9.9038213491439819e-01" cType="1" res="-4.1904789395630360e-04" rms="2.0195496082305908e-01" purity="5.0000000000000000e-01" nType="0">
        <Node pos="l" depth="1" NCoef="0" IVar="0" Cut="6.1794888973236084e-01" cType="1" res="1.7109704203903675e-03" rms="2.1145400404930115e-01" purity="5.6381118297576904e-01" nType="0">
          <Node pos="l" depth="2" NCoef="0" IVar="-1" Cut="0.0000000000000000e+00" cType="1" res="7.0852242410182953e-02" rms="2.1988908946514130e-01" purity="6.4739882946014404e-01" nType="-99"/>
          <Node pos="r" depth="2" NCoef="0" IVar="-1" Cut="0.0000000000000000e+00" cType="1" res="-1.9015292823314667e-01" rms="1.8201391398906708e-01" purity="3.0465948581695557e-01" nType="-99"/>
        </Node>
        <Node pos="r" depth="1" NCoef="0" IVar="0" Cut="1.1142135858535767e+00" cType="1" res="-1.3380436226725578e-02" rms="1.2920553982257843e-01" purity="1.1170212924480438e-01" nType="0">
          <Node pos="l" depth="2" NCoef="0" IVar="-1" Cut="0.0000000000000000e+00" cType="1" res="1.9032740592956543e-01" rms="1.8377810716629028e-01" purity="1.8644067645072937e-01" nType="-99"/>
          <Node pos="r" depth="2" NCoef="0" IVar="-1" Cut="0.0000000000000000e+00" cType="1" res="-4.5253929495811462e-01" rms="9.2174664139747620e-02" purity="7.7519379556179047e-02" nType="-99"/>
        </Node>
      </Node>
    </BinaryTree>
    <BinaryTree type="DecisionTree" boostWeight="1.0000000000000000e+00" itree="15">
      <Node pos="s" depth="0" NCoef="0" IVar="0" Cut="4.9670958518981934e-01" cType="1" res="-7.3925399919971824e-04" rms="2.0087741315364838e-01" purity="5.0000000000000000e-01" nType="0">
        <Node pos="l" depth="1" NCoef="0" IVar="0" Cut="2.4983437359333038e-01" cType="1" res="-4.9892398528754711e-03" rms="2.1444390714168549e-01" purity="6.8946647644042969e-01" nType="0">
          <Node pos="l" depth="2" NCoef="0" IVar="-1" Cut="0.0000000000000000e+00" cType="1" res="-6.4652157016098499e-03" rms="2.0332235097885132e-01" purity="7.6576578617095947e-01" nType="-99"/>
          <Node pos="r" depth="2" NCoef="0" IVar="-1" Cut="0.0000000000000000e+00" cType="1" res="-1.2007258832454681e-01" rms="2.3042753338813782e-01" purity="5.7142859697341919e-01" nType="-99"/>
        </Node>
        <Node pos="r" depth="1" NCoef="0" IVar="0" Cut="1.2374132871627808e+00" cType="1" res="4.4300300069153309e-03" rms="1.8289290368556976e-01" purity="2.6955074071884155e-01" nType="0">
          <Node pos="l" depth="2" NCoef="0" IVar="-1" Cut="0.0000000000000000e+00" cType="1" res="1.0613325983285904e-01" rms="1.9551166892051697e-01" purity="3.0192306637763977e-01" nType="-99"/>
          <Node pos="r" depth="2" NCoef="0" IVar="-1" Cut="0.0000000000000000e+00" cType="1" res="-4.1826006770133972e-01" rms="4.9408841878175735e-02" purity="6.1728395521640778e-02" nType="-99"/>
        </Node>
      </Node>
    </BinaryTree>
    <BinaryTree type="DecisionTree" boostWeight="1.0000000000000000e+00" itree="16">
      <Node pos="s" depth="0" NCoef="0" IVar="2" Cut="2.1520011425018311e+00" cType="0" res="-2.3672696261201054e-04" rms="2.0009768009185791e-01" purity="5.0000000000000000e-01" nType="0">
        <Node pos="l" depth="1" NCoef="0" IVar="0" Cut="9.9005073308944702e-01" cType="1" res="-2.0836391486227512e-03" rms="2.0683737099170685e-01" purity="7.0491802692413330e-01" nType="0">
          <Node pos="l" depth="2" NCoef="0" IVar="-1" Cut="0.0000000000000000e+00" cType="1" res="1.1951016495004296e-03" rms="2.1346235275268555e-01" purity="7.6330274343490601e-01" nType="-99"/>
          <Node pos="r" depth="2" NCoef="0" IVar="-1" Cut="0.0000000000000000e+00" cType="1" res="-3.1518831849098206e-01" rms="1.3804422318935394e-01" purity="2.1538461744785309e-01" nType="-99"/>
        </Node>
        <Node pos="r" depth="1" NCoef="0" IVar="3" Cut="1.9280505180358887e+00" cType="0" res="1.3236836530268192e-03" rms="1.9420759379863739e-01" purity="3.2686981558799744e-01" nType="0">
          <Node pos="l" depth="2" NCoef="0" IVar="-1" Cut="0.0000000000000000e+00" cType="1" res="-4.2771023511886597e-01" rms="1.2317423522472382e-01" purity="9.8437500000000000e-01" nType="-99"/>
          <Node pos="r" depth="2" NCoef="0" IVar="-1" Cut="0.0000000000000000e+00" cType="1" res="4.6144451946020126e-02" rms="2.1412777900695801e-01" purity="8.8679246604442596e-02" nType="-99"/>
        </Node>
      </Node>
    </BinaryTree>
    <BinaryTree type="DecisionTree" boostWeight="1.0000000000000000e+00" itree="17">
      <Node pos="s" depth="0" NCoef="0" IVar="0" Cut="9.9038213491439819e-01" cType="1" res="3.2769708195701241e-04" rms="1.9968616962432861e-01" purity="5.0000000000000000e-01" nType="0">
        <Node pos="l" depth="1" NCoef="0" IVar="0" Cut="6.1794888973236084e-01" cType="1" res="-3.4818955464288592e-04" rms="2.0954491198062897e-01" purity="5.6381118297576904e-01" nType="0">
          <Node pos="l" depth="2" NCoef="0" IVar="-1" Cut="0.0000000000000000e+00" cType="1" res="2.3270653560757637e-02" rms="2.1779772639274597e-01" purity="6.4739882946014404e-01" nType="-99"/>
          <Node pos="r" depth="2" NCoef="0" IVar="-1" Cut="0.0000000000000000e+00" cType="1" res="-1.2191483378410339e-01" rms="1.8135163187980652e-01" purity="3.0465948581695557e-01" nType="-99"/>
        </Node>
        <Node pos="r" depth="1" NCoef="0" IVar="3" Cut="1.9047448635101318e+00" cType="0" res="4.4405395165085793e-03" rms="1.2371138483285904e-01" purity="1.1170212924480438e-01" nType="0">
          <Node pos="l" depth="2" NCoef="0" IVar="-1" Cut="0.0000000000000000e+00" cType="1" res="5.9471029043197632e-01" rms="1.3163116574287415e-01" purity="8.5714286565780640e-01" nType="-99"/>
          <Node pos="r" depth="2" NCoef="0" IVar="-1" Cut="0.0000000000000000e+00" cType="1" res="-4.3528858572244644e-02" rms="1.2141276150941849e-01" purity="1.7964072525501251e-02" nType="-99"/>
        </Node>
      </Node>
    </BinaryTree>
    <BinaryTree type="DecisionTree" boostWeight="1.0000000000000000e+00" itree="18">
      <Node pos="s" depth="0" NCoef="0" IVar="0" Cut="4.9670958518981934e-01" cType="1" res="1.7812952137319371e-05" rms="1.9913525879383087e-01" purity="5.0000000000000000e-01" nType="0">
        <Node pos="l" depth="1" NCoef="0" IVar="2" Cut="4.0640764236450195e+00" cType="0" res="-2.4264920502901077e-03" rms="2.1347732841968536e-01" purity="6.8946647644042969e-01" nType="0">
          <Node pos="l" depth="2" NCoef="0" IVar="-1" Cut="0.0000000000000000e+00" cType="1" res="1.9739229977130890e-01" rms="1.3528320193290710e-01" purity="9.4736844301223755e-01" nType="-99"/>
          <Node pos="r" depth="2" NCoef="0" IVar="-1" Cut="0.0000000000000000e+00" cType="1" res="-3.7949968129396439e-02" rms="2.1876296401023865e-01" purity="6.6765576601028442e-01" nType="-99"/>
        </Node>
        <Node pos="r" depth="1" NCoef="0" IVar="2" Cut="4.1773300170898438e+00" cType="0" res="2.9908360447734594e-03" rms="1.8011379241943359e-01" purity="2.6955074071884155e-01" nType="0">
          <Node pos="l" depth="2" NCoef="0" IVar="-1" Cut="0.0000000000000000e+00" cType="1" res="-2.1142068505287170e-01" rms="2.2448751330375671e-01" purity="6.6666668653488159e-01" nType="-99"/>
          <Node pos="r" depth="2" NCoef="0" IVar="-1" Cut="0.0000000000000000e+00" cType="1" res="6.2302343547344208e-02" rms="1.7875997722148895e-01" purity="2.5938567519187927e-01" nType="-99"/>
        </Node>
      </Node>
    </BinaryTree>
    <BinaryTree type="DecisionTree" boostWeight="1.0000000000000000e+00" itree="19">
      <Node pos="s" depth="0" NCoef="0" IVar="3" Cut="2.1636590957641602e+00" cType="0" res="3.2693369576008990e-05" rms="1.9875812530517578e-01" purity="5.0000000000000000e-01" nType="0">
        <Node pos="l" depth="1" NCoef="0" IVar="2" Cut="8.1810992956161499e-01" cType="0" res="2.9639466665685177e-03" rms="5.7910219766199589e-03" purity="1.0000000000000000e+00" nType="0">
          <Node pos="l" depth="2" NCoef="0" IVar="-1" Cut="0.0000000000000000e+00" cType="1" res="5.0240373611450195e-01" rms="2.3449989967048168e-03" purity="1.0000000000000000e+00" nType="-99"/>
          <Node pos="r" depth="2" NCoef="0" IVar="-1" Cut="0.0000000000000000e+00" cType="1" res="5.1402491331100464e-01" rms="1.3496591709554195e-02" purity="1.0000000000000000e+00" nType="-99"/>
        </Node>
        <Node pos="r" depth="1" NCoef="0" IVar="2" Cut="1.9572288990020752e+00" cType="0" res="-5.0049822311848402e-04" rms="2.1606184542179108e-01" purity="4.0905058383941650e-01" nType="0">
          <Node pos="l" depth="2" NCoef="0" IVar="-1" Cut="0.0000000000000000e+00" cType="1" res="4.3942000716924667e-02" rms="2.3205101490020752e-01" purity="6.1524498462677002e-01" nType="-99"/>
          <Node pos="r" depth="2" NCoef="0" IVar="-1" Cut="0.0000000000000000e+00" cType="1" res="-6.6595792770385742e-02" rms="1.9943986833095551e-01" purity="2.1180555224418640e-01" nType="-99"/>
        </Node>
      </Node>
    </BinaryTree>
    <BinaryTree type="DecisionTree" boostWeight="1.0000000000000000e+00" itree="20">
      <Node pos="s" depth="0" NCoef="0" IVar="2" Cut="2.1520011425018311e+00" cType="0" res="1.4585338067263365e-04" rms="1.9852858781814575e-01" purity="5.0000000000000000e-01" nType="0">
        <Node pos="l" depth="1" NCoef="0" IVar="3" Cut="1.9444459676742554e+00" cType="0" res="-4.4021843932569027e-03" rms="2.0558118820190430e-01" purity="7.0491802692413330e-01" nType="0">
          <Node pos="l" depth="2" NCoef="0" IVar="-1" Cut="0.0000000000000000e+00" cType="1" res="5.0213479995727539e-01" rms="2.0033314358443022e-03" purity="1.0000000000000000e+00" nType="-99"/>
          <Node pos="r" depth="2" NCoef="0" IVar="-1" Cut="0.0000000000000000e+00" cType="1" res="-6.1466962099075317e-02" rms="2.8919592499732971e-01" purity="4.1558441519737244e-01" nType="-99"/>
        </Node>
        <Node pos="r" depth="1" NCoef="0" IVar="3" Cut="1.6981216669082642e+00" cType="0" res="3.9883786812424660e-03" rms="1.9228480756282806e-01" purity="3.2686981558799744e-01" nType="0">
          <Node pos="l" depth="2" NCoef="0" IVar="-1" Cut="0.0000000000000000e+00" cType="1" res="5.7621389627456665e-02" rms="2.3701980710029602e-01" purity="4.9684211611747742e-01" nType="-99"/>
          <Node pos="r" depth="2" NCoef="0" IVar="-1" Cut="0.0000000000000000e+00" cType="1" res="-5.0133693218231201e-01" rms="1.3103244127705693e-03" purity="0.0000000000000000e+00" nType="-99"/>
        </Node>
      </Node>
    </BinaryTree>
    <BinaryTree type="DecisionTree" boostWeight="1.0000000000000000e+00" itree="21">
      <Node pos="s" depth="0" NCoef="0" IVar="0" Cut="3.0370354652404785e-03" cType="1" res="4.3327901948941872e-05" rms="1.9829098880290985e-01" purity="5.0000000000000000e-01" nType="0">
        <Node pos="l" depth="1" NCoef="0" IVar="1" Cut="1.2731261253356934e+00" cType="1" res="-1.9275218946859241e-03" rms="2.0079581439495087e-01" purity="7.9668051004409790e-01" nType="0">
          <Node pos="l" depth="2" NCoef="0" IVar="-1" Cut="0.0000000000000000e+00" cType="1" res="1.6812728345394135e-01" rms="1.7683087289333344e-01" purity="8.0295568704605103e-01" nType="-99"/>
          <Node pos="r" depth="2" NCoef="0" IVar="-1" Cut="0.0000000000000000e+00" cType="1" res="-7.3906052112579346e-01" rms="2.8449448943138123e-01" purity="7.6315790414810181e-01" nType="-99"/>
        </Node>
        <Node pos="r" depth="1" NCoef="0" IVar="2" Cut="4.1773300170898438e+00" cType="0" res="4.7868519322946668e-04" rms="1.9773074984550476e-01" purity="4.3446379899978638e-01" nType="0">
          <Node pos="l" depth="2" NCoef="0" IVar="-1" Cut="0.0000000000000000e+00" cType="1" res="1.8104788661003113e-01" rms="1.3647142052650452e-01" purity="8.8095235824584961e-01" nType="-99"/>
          <Node pos="r" depth="2" NCoef="0" IVar="-1" Cut="0.0000000000000000e+00" cType="1" res="-1.0748121712822467e-04" rms="1.9977732002735138e-01" purity="4.1658723354339600e-01" nType="-99"/>
        </Node>
      </Node>
    </BinaryTree>
    <BinaryTree type="DecisionTree" boostWeight="1.0000000000000000e+00" itree="22">
      <Node pos="s" depth="0" NCoef="0" IVar="1" Cut="-6.0220956802368164e-02" cType="1" res="5.2724988199770451e-04" rms="1.9687187671661377e-01" purity="5.0000000000000000e-01" nType="0">
        <Node pos="l" depth="1" NCoef="0" IVar="0" Cut="4.9652487039566040e-01" cType="1" res="-2.4019535630941391e-03" rms="1.9568704068660736e-01" purity="5.0844591856002808e-01" nType="0">
          <Node pos="l" depth="2" NCoef="0" IVar="-1" Cut="0.0000000000000000e+00" cType="1" res="-8.1504940986633301e-02" rms="1.9520959258079529e-01" purity="7.0326411724090576e-01" nType="-99"/>
          <Node pos="r" depth="2" NCoef="0" IVar="-1" Cut="0.0000000000000000e+00" cType="1" res="5.2840180695056915e-02" rms="1.9614647328853607e-01" purity="2.5098040699958801e-01" nType="-99"/>
        </Node>
        <Node pos="r" depth="1" NCoef="0" IVar="0" Cut="5.0628161430358887e-01" cType="1" res="2.8706125449389219e-03" rms="1.9778341054916382e-01" purity="4.9324324727058411e-01" nType="0">
          <Node pos="l" depth="2" NCoef="0" IVar="-1" Cut="0.0000000000000000e+00" cType="1" res="1.0369192808866501e-01" rms="2.2496119141578674e-01" purity="6.7506295442581177e-01" nType="-99"/>
          <Node pos="r" depth="2" NCoef="0" IVar="-1" Cut="0.0000000000000000e+00" cType="1" res="-1.0531609505414963e-01" rms="1.6022826731204987e-01" purity="2.8279882669448853e-01" nType="-99"/>
        </Node>
      </Node>
    </BinaryTree>
    <BinaryTree type="DecisionTree" boostWeight="1.0000000000000000e+00" itree="23">
      <Node pos="s" depth="0" NCoef="0" IVar="0" Cut="4.9670958518981934e-01" cType="1" res="-2.8558283702295739e-06" rms="1.9647915661334991e-01" purity="5.0000000000000000e-01" nType="0">
        <Node pos="l" depth="1" NCoef="0" IVar="1" Cut="1.2243037223815918e+00" cType="0" res="-1.0450130794197321e-03" rms="2.0978082716464996e-01" purity="6.8946647644042969e-01" nType="0">
          <Node pos="l" depth="2" NCoef="0" IVar="-1" Cut="0.0000000000000000e+00" cType="1" res="1.5267218649387360e-01" rms="2.1567364037036896e-01" purity="7.6223778724670410e-01" nType="-99"/>
          <Node pos="r" depth="2" NCoef="0" IVar="-1" Cut="0.0000000000000000e+00" cType="1" res="-5.6119047105312347e-02" rms="2.0811763405799866e-01" purity="6.7176872491836548e-01" nType="-99"/>
        </Node>
        <Node pos="r" depth="1" NCoef="0" IVar="2" Cut="4.1773300170898438e+00" cType="0" res="1.2647265102714300e-03" rms="1.7896449565887451e-01" purity="2.6955074071884155e-01" nType="0">
          <Node pos="l" depth="2" NCoef="0" IVar="-1" Cut="0.0000000000000000e+00" cType="1" res="-1.5886338055133820e-01" rms="2.2744736075401306e-01" purity="6.6666668653488159e-01" nType="-99"/>
          <Node pos="r" depth="2" NCoef="0" IVar="-1" Cut="0.0000000000000000e+00" cType="1" res="3.0052430927753448e-02" rms="1.7750979959964752e-01" purity="2.5938567519187927e-01" nType="-99"/>
        </Node>
      </Node>
    </BinaryTree>
    <BinaryTree type="DecisionTree" boostWeight="1.0000000000000000e+00" itree="24">
      <Node pos="s" depth="0" NCoef="0" IVar="1" Cut="-6.0220956802368164e-02" cType="1" res="5.1865841669496149e-05" rms="1.9595529139041901e-01" purity="5.0000000000000000e-01" nType="0">
        <Node pos="l" depth="1" NCoef="0" IVar="2" Cut="4.0284034609794617e-01" cType="0" res="2.3945709690451622e-03" rms="1.9531273841857910e-01" purity="5.0844591856002808e-01" nType="0">
          <Node pos="l" depth="2" NCoef="0" IVar="-1" Cut="0.0000000000000000e+00" cType="1" res="4.7476015985012054e-02" rms="2.0308294892311096e-01" purity="5.4327809810638428e-01" nType="-99"/>
          <Node pos="r" depth="2" NCoef="0" IVar="-1" Cut="0.0000000000000000e+00" cType="1" res="-4.3483957648277283e-01" rms="5.8347146958112717e-02" purity="1.2244898080825806e-01" nType="-99"/>
        </Node>
        <Node pos="r" depth="1" NCoef="0" IVar="2" Cut="1.9163088798522949e+00" cType="0" res="-1.8222983926534653e-03" rms="1.9644771516323090e-01" purity="4.9324324727058411e-01" nType="0">
          <Node pos="l" depth="2" NCoef="0" IVar="-1" Cut="0.0000000000000000e+00" cType="1" res="-5.5991668254137039e-02" rms="2.1114759147167206e-01" purity="6.8393784761428833e-01" nType="-99"/>
          <Node pos="r" depth="2" NCoef="0" IVar="-1" Cut="0.0000000000000000e+00" cType="1" res="1.5366463921964169e-02" rms="1.7900149524211884e-01" purity="2.8531074523925781e-01" nType="-99"/>
        </Node>
      </Node>
    </BinaryTree>
    <BinaryTree type="DecisionTree" boostWeight="1.0000000000000000e+00" itree="25">
      <Node pos="s" depth="0" NCoef="0" IVar="2" Cut="1.2667205929756165e-01" cType="0" res="-9.2562317149713635e-05" rms="1.9560691714286804e-01" purity="5.0000000000000000e-01" nType="0">
        <Node pos="l" depth="1" NCoef="0" IVar="2" Cut="1.6501431465148926e+00" cType="0" res="-3.5342940827831626e-04" rms="2.0185935497283936e-01" purity="5.2931725978851318e-01" nType="0">
          <Node pos="l" depth="2" NCoef="0" IVar="-1" Cut="0.0000000000000000e+00" cType="1" res="3.9257224649190903e-02" rms="2.1485307812690735e-01" purity="6.4363634586334229e-01" nType="-99"/>
          <Node pos="r" depth="2" NCoef="0" IVar="-1" Cut="0.0000000000000000e+00" cType="1" res="-9.5432758331298828e-02" rms="1.7328940331935883e-01" purity="3.0476191639900208e-01" nType="-99"/>
        </Node>
        <Node pos="r" depth="1" NCoef="0" IVar="0" Cut="6.8590126931667328e-02" cType="1" res="3.6405355203896761e-03" rms="5.1807753741741180e-02" purity="8.0459773540496826e-02" nType="0">
          <Node pos="l" depth="2" NCoef="0" IVar="-1" Cut="0.0000000000000000e+00" cType="1" res="-5.1757144927978516e-01" rms="3.1728032976388931e-02" purity="1.0000000149011612e-01" nType="-99"/>
          <Node pos="r" depth="2" NCoef="0" IVar="-1" Cut="0.0000000000000000e+00" cType="1" res="1.8828815221786499e-01" rms="5.3563103079795837e-02" purity="7.7922075986862183e-02" nType="-99"/>
        </Node>
      </Node>
    </BinaryTree>
    <BinaryTree type="DecisionTree" boostWeight="1.0000000000000000e+00" itree="26">
      <Node pos="s" depth="0" NCoef="0" IVar="2" Cut="2.1520011425018311e+00" cType="0" res="-7.1973154263105243e-05" rms="1.9542078673839569e-01" purity="5.0000000000000000e-01" nType="0">
        <Node pos="l" depth="1" NCoef="0" IVar="0" Cut="7.1988701820373535e-03" cType="1" res="-2.4387426674365997e-03" rms="2.0388835668563843e-01" purity="7.0491802692413330e-01" nType="0">
          <Node pos="l" depth="2" NCoef="0" IVar="-1" Cut="0.0000000000000000e+00" cType="1" res="-1.6848796606063843e-01" rms="1.6268830001354218e-01" purity="9.0839695930480957e-01" nType="-99"/>
          <Node pos="r" depth="2" NCoef="0" IVar="-1" Cut="0.0000000000000000e+00" cType="1" res="-4.6778768301010132e-03" rms="2.1373334527015686e-01" purity="6.4926928281784058e-01" nType="-99"/>
        </Node>
        <Node pos="r" depth="1" NCoef="0" IVar="0" Cut="3.0370354652404785e-03" cType="1" res="1.9276521634310484e-03" rms="1.8794648349285126e-01" purity="3.2686981558799744e-01" nType="0">
          <Node pos="l" depth="2" NCoef="0" IVar="-1" Cut="0.0000000000000000e+00" cType="1" res="1.5721137821674347e-01" rms="2.2223442792892456e-01" purity="6.7256635427474976e-01" nType="-99"/>
          <Node pos="r" depth="2" NCoef="0" IVar="-1" Cut="0.0000000000000000e+00" cType="1" res="-1.4037827029824257e-02" rms="1.8072070181369781e-01" purity="2.6272577047348022e-01" nType="-99"/>
        </Node>
      </Node>
    </BinaryTree>
    <BinaryTree type="DecisionTree" boostWeight="1.0000000000000000e+00" itree="27">
      <Node pos="s" depth="0" NCoef="0" IVar="0" Cut="9.9038213491439819e-01" cType="1" res="1.1492344492580742e-04" rms="1.9511061906814575e-01" purity="5.0000000000000000e-01" nType="0">
        <Node pos="l" depth="1" NCoef="0" IVar="2" Cut="5.0603508949279785e-01" cType="0" res="5.5849418276920915e-04" rms="2.0559163391590118e-01" purity="5.6381118297576904e-01" nType="0">
          <Node pos="l" depth="2" NCoef="0" IVar="-1" Cut="0.0000000000000000e+00" cType="1" res="1.6476111486554146e-02" rms="2.1424767374992371e-01" purity="5.9923297166824341e-01" nType="-99"/>
          <Node pos="r" depth="2" NCoef="0" IVar="-1" Cut="0.0000000000000000e+00" cType="1" res="-2.5866061449050903e-01" rms="6.8054430186748505e-02" purity="1.9801980257034302e-01" nType="-99"/>
        </Node>
        <Node pos="r" depth="1" NCoef="0" IVar="1" Cut="1.2087820768356323e+00" cType="0" res="-2.5842518080025911e-03" rms="1.1181969195604324e-01" purity="1.1170212924480438e-01" nType="0">
          <Node pos="l" depth="2" NCoef="0" IVar="-1" Cut="0.0000000000000000e+00" cType="1" res="-5.3161007165908813e-01" rms="3.2751169055700302e-02" purity="1.2500000000000000e-01" nType="-99"/>
          <Node pos="r" depth="2" NCoef="0" IVar="-1" Cut="0.0000000000000000e+00" cType="1" res="8.1070577725768089e-03" rms="1.2165260314941406e-01" purity="1.0897435992956161e-01" nType="-99"/>
        </Node>
      </Node>
    </BinaryTree>
    <BinaryTree type="DecisionTree" boostWeight="1.0000000000000000e+00" itree="28">
      <Node pos="s" depth="0" NCoef="0" IVar="2" Cut="1.2667205929756165e-01" cType="0" res="-1.5527338837273419e-04" rms="1.9481287896633148e-01" purity="5.0000000000000000e-01" nType="0">
        <Node pos="l" depth="1" NCoef="0" IVar="2" Cut="4.6851539611816406e+00" cType="0" res="-5.2043312462046742e-04" rms="2.0104321837425232e-01" purity="5.2931725978851318e-01" nType="0">
          <Node pos="l" depth="2" NCoef="0" IVar="-1" Cut="0.0000000000000000e+00" cType="1" res="2.0503947138786316e-01" rms="8.1148751080036163e-02" purity="8.9285713434219360e-01" nType="-99"/>
          <Node pos="r" depth="2" NCoef="0" IVar="-1" Cut="0.0000000000000000e+00" cType="1" res="-8.8785206899046898e-03" rms="2.0296438038349152e-01" purity="5.2095317840576172e-01" nType="-99"/>
        </Node>
        <Node pos="r" depth="1" NCoef="0" IVar="0" Cut="5.1434767246246338e-01" cType="1" res="5.0702881999313831e-03" rms="5.1273975521326065e-02" purity="8.0459773540496826e-02" nType="0">
          <Node pos="l" depth="2" NCoef="0" IVar="-1" Cut="0.0000000000000000e+00" cType="1" res="3.7198406457901001e-01" rms="6.4541749656200409e-02" purity="1.5000000596046448e-01" nType="-99"/>
          <Node pos="r" depth="2" NCoef="0" IVar="-1" Cut="0.0000000000000000e+00" cType="1" res="-1.0941680520772934e-01" rms="3.4755300730466843e-02" purity="2.1276595070958138e-02" nType="-99"/>
        </Node>
      </Node>
    </BinaryTree>
    <BinaryTree type="DecisionTree" boostWeight="1.0000000000000000e+00" itree="29">
      <Node pos="s" depth="0" NCoef="0" IVar="0" Cut="4.9670958518981934e-01" cType="1" res="2.5837503926595673e-05" rms="1.9467078149318695e-01" purity="5.0000000000000000e-01" nType="0">
        <Node pos="l" depth="1" NCoef="0" IVar="2" Cut="5.6600022315979004e-01" cType="0" res="-5.2791810594499111e-04" rms="2.0735226571559906e-01" purity="6.8946647644042969e-01" nType="0">
          <Node pos="l" depth="2" NCoef="0" IVar="-1" Cut="0.0000000000000000e+00" cType="1" res="2.9635124374181032e-03" rms="2.1608397364616394e-01" purity="7.2481203079223633e-01" nType="-99"/>
          <Node pos="r" depth="2" NCoef="0" IVar="-1" Cut="0.0000000000000000e+00" cType="1" res="-1.7344820499420166e-01" rms="7.5281299650669098e-02" purity="3.3333334326744080e-01" nType="-99"/>
        </Node>
        <Node pos="r" depth="1" NCoef="0" IVar="0" Cut="7.4413055181503296e-01" cType="1" res="6.9937389343976974e-04" rms="1.7803049087524414e-01" purity="2.6955074071884155e-01" nType="0">
          <Node pos="l" depth="2" NCoef="0" IVar="-1" Cut="0.0000000000000000e+00" cType="1" res="-4.2858753353357315e-02" rms="2.1131907403469086e-01" purity="3.7656903266906738e-01" nType="-99"/>
          <Node pos="r" depth="2" NCoef="0" IVar="-1" Cut="0.0000000000000000e+00" cType="1" res="7.7475085854530334e-02" rms="1.5204140543937683e-01" purity="1.9889502227306366e-01" nType="-99"/>
        </Node>
      </Node>
    </BinaryTree>
    <BinaryTree type="DecisionTree" boostWeight="1.0000000000000000e+00" itree="30">
      <Node pos="s" depth="0" NCoef="0" IVar="0" Cut="9.9038213491439819e-01" cType="1" res="-4.2190658859908581e-05" rms="1.9453985989093781e-01" purity="5.0000000000000000e-01" nType="0">
        <Node pos="l" depth="1" NCoef="0" IVar="0" Cut="6.1794888973236084e-01" cType="1" res="4.4605406583286822e-04" rms="2.0507186651229858e-01" purity="5.6381118297576904e-01" nType="0">
          <Node pos="l" depth="2" NCoef="0" IVar="-1" Cut="0.0000000000000000e+00" cType="1" res="2.3944811895489693e-02" rms="2.1169130504131317e-01" purity="6.4739882946014404e-01" nType="-99"/>
          <Node pos="r" depth="2" NCoef="0" IVar="-1" Cut="0.0000000000000000e+00" cType="1" res="-7.7162683010101318e-02" rms="1.8292139470577240e-01" purity="3.0465948581695557e-01" nType="-99"/>
        </Node>
        <Node pos="r" depth="1" NCoef="0" IVar="2" Cut="3.2564845085144043e+00" cType="0" res="-3.0132117681205273e-03" rms="1.1056664586067200e-01" purity="1.1170212924480438e-01" nType="0">
          <Node pos="l" depth="2" NCoef="0" IVar="-1" Cut="0.0000000000000000e+00" cType="1" res="-5.0472366809844971e-01" rms="3.2616797834634781e-02" purity="3.1250000000000000e-01" nType="-99"/>
          <Node pos="r" depth="2" NCoef="0" IVar="-1" Cut="0.0000000000000000e+00" cType="1" res="-4.4995624572038651e-02" rms="1.1506918817758560e-01" purity="9.3023255467414856e-02" nType="-99"/>
        </Node>
      </Node>
    </BinaryTree>
    <BinaryTree type="DecisionTree" boostWeight="1.0000000000000000e+00" itree="31">
      <Node pos="s" depth="0" NCoef="0" IVar="0" Cut="4.9670958518981934e-01" cType="1" res="-9.4974871899466962e-05" rms="1.9451953470706940e-01" purity="5.0000000000000000e-01" nType="0">
        <Node pos="l" depth="1" NCoef="0" IVar="3" Cut="1.9318370819091797e+00" cType="0" res="-2.2182301618158817e-03" rms="2.0717202126979828e-01" purity="6.8946647644042969e-01" nType="0">
          <Node pos="l" depth="2" NCoef="0" IVar="-1" Cut="0.0000000000000000e+00" cType="1" res="9.0512461960315704e-02" rms="7.1334302425384521e-02" purity="9.9476438760757446e-01" nType="-99"/>
          <Node pos="r" depth="2" NCoef="0" IVar="-1" Cut="0.0000000000000000e+00" cType="1" res="-3.2447498291730881e-02" rms="2.9035151004791260e-01" purity="3.5530087351799011e-01" nType="-99"/>
        </Node>
        <Node pos="r" depth="1" NCoef="0" IVar="3" Cut="1.7034772634506226e+00" cType="0" res="2.4875537492334843e-03" rms="1.7788743972778320e-01" purity="2.6955074071884155e-01" nType="0">
          <Node pos="l" depth="2" NCoef="0" IVar="-1" Cut="0.0000000000000000e+00" cType="1" res="4.5911908149719238e-02" rms="2.2367857396602631e-01" purity="4.2631578445434570e-01" nType="-99"/>
          <Node pos="r" depth="2" NCoef="0" IVar="-1" Cut="0.0000000000000000e+00" cType="1" res="-5.0567352771759033e-01" rms="2.9576942324638367e-03" purity="0.0000000000000000e+00" nType="-99"/>
        </Node>
      </Node>
    </BinaryTree>
    <BinaryTree type="DecisionTree" boostWeight="1.0000000000000000e+00" itree="32">
      <Node pos="s" depth="0" NCoef="0" IVar="0" Cut="9.9038213491439819e-01" cType="1" res="-3.8135371141834185e-05" rms="1.9429336488246918e-01" purity="5.0000000000000000e-01" nType="0">
        <Node pos="l" depth="1" NCoef="0" IVar="0" Cut="6.1794888973236084e-01" cType="1" res="2.8049628599546850e-04" rms="2.0483817160129547e-01" purity="5.6381118297576904e-01" nType="0">
          <Node pos="l" depth="2" NCoef="0" IVar="-1" Cut="0.0000000000000000e+00" cType="1" res="1.4366094022989273e-02" rms="2.1140137314796448e-01" purity="6.4739882946014404e-01" nType="-99"/>
          <Node pos="r" depth="2" NCoef="0" IVar="-1" Cut="0.0000000000000000e+00" cType="1" res="-4.6106863766908646e-02" rms="1.8296115100383759e-01" purity="3.0465948581695557e-01" nType="-99"/>
        </Node>
        <Node pos="r" depth="1" NCoef="0" IVar="2" Cut="1.5381040573120117e+00" cType="0" res="-1.9770429935306311e-03" rms="1.1015791445970535e-01" purity="1.1170212924480438e-01" nType="0">
          <Node pos="l" depth="2" NCoef="0" IVar="-1" Cut="0.0000000000000000e+00" cType="1" res="4.3044224381446838e-02" rms="1.4085508882999420e-01" purity="1.6513761878013611e-01" nType="-99"/>
          <Node pos="r" depth="2" NCoef="0" IVar="-1" Cut="0.0000000000000000e+00" cType="1" res="-3.0463886260986328e-01" rms="3.8153003901243210e-02" purity="3.7974681705236435e-02" nType="-99"/>
        </Node>
      </Node>
    </BinaryTree>
    <BinaryTree type="DecisionTree" boostWeight="1.0000000000000000e+00" itree="33">
      <Node pos="s" depth="0" NCoef="0" IVar="0" Cut="4.9670958518981934e-01" cType="1" res="-7.0643567596562207e-05" rms="1.9430717825889587e-01" purity="5.0000000000000000e-01" nType="0">
        <Node pos="l" depth="1" NCoef="0" IVar="1" Cut="-1.7927424907684326e+00" cType="1" res="-1.2621532659977674e-03" rms="2.0711837708950043e-01" purity="6.8946647644042969e-01" nType="0">
          <Node pos="l" depth="2" NCoef="0" IVar="-1" Cut="0.0000000000000000e+00" cType="1" res="5.5037993937730789e-02" rms="1.6361708939075470e-01" purity="7.6249998807907104e-01" nType="-99"/>
          <Node pos="r" depth="2" NCoef="0" IVar="-1" Cut="0.0000000000000000e+00" cType="1" res="-2.1696595475077629e-02" rms="2.1183699369430542e-01" purity="6.8049156665802002e-01" nType="-99"/>
        </Node>
        <Node pos="r" depth="1" NCoef="0" IVar="2" Cut="2.1520011425018311e+00" cType="0" res="1.3785969931632280e-03" rms="1.7747198045253754e-01" purity="2.6955074071884155e-01" nType="0">
          <Node pos="l" depth="2" NCoef="0" IVar="-1" Cut="0.0000000000000000e+00" cType="1" res="-3.3565077930688858e-02" rms="2.2904999554157257e-01" purity="4.6025103330612183e-01" nType="-99"/>
          <Node pos="r" depth="2" NCoef="0" IVar="-1" Cut="0.0000000000000000e+00" cType="1" res="9.6234194934368134e-02" rms="1.3278748095035553e-01" purity="1.4364640414714813e-01" nType="-99"/>
        </Node>
      </Node>
    </BinaryTree>
    <BinaryTree type="DecisionTree" boostWeight="1.0000000000000000e+00" itree="34">
      <Node pos="s" depth="0" NCoef="0" IVar="1" Cut="-6.0220956802368164e-02" cType="1" res="-5.3224881412461400e-05" rms="1.9398626685142517e-01" purity="5.0000000000000000e-01" nType="0">
        <Node pos="l" depth="1" NCoef="0" IVar="0" Cut="4.9652487039566040e-01" cType="1" res="-1.0311651276424527e-03" rms="1.9346794486045837e-01" purity="5.0844591856002808e-01" nType="0">
          <Node pos="l" depth="2" NCoef="0" IVar="-1" Cut="0.0000000000000000e+00" cType="1" res="2.4493068456649780e-02" rms="1.9389526546001434e-01" purity="7.0326411724090576e-01" nType="-99"/>
          <Node pos="r" depth="2" NCoef="0" IVar="-1" Cut="0.0000000000000000e+00" cType="1" res="-6.8495042622089386e-02" rms="1.9282099604606628e-01" purity="2.5098040699958801e-01" nType="-99"/>
        </Node>
        <Node pos="r" depth="1" NCoef="0" IVar="3" Cut="1.9318370819091797e+00" cType="0" res="7.2912737959995866e-04" rms="1.9439639151096344e-01" purity="4.9324324727058411e-01" nType="0">
          <Node pos="l" depth="2" NCoef="0" IVar="-1" Cut="0.0000000000000000e+00" cType="1" res="-2.8232225775718689e-01" rms="1.0219738632440567e-01" purity="9.8943662643432617e-01" nType="-99"/>
          <Node pos="r" depth="2" NCoef="0" IVar="-1" Cut="0.0000000000000000e+00" cType="1" res="2.9827892780303955e-02" rms="2.3409786820411682e-01" purity="1.8421052396297455e-01" nType="-99"/>
        </Node>
      </Node>
    </BinaryTree>
    <BinaryTree type="DecisionTree" boostWeight="1.0000000000000000e+00" itree="35">
      <Node pos="s" depth="0" NCoef="0" IVar="3" Cut="1.9318370819091797e+00" cType="0" res="2.0156787650194019e-04" rms="1.9398844242095947e-01" purity="5.0000000000000000e-01" nType="0">
        <Node pos="l" depth="1" NCoef="0" IVar="2" Cut="8.1810992956161499e-01" cType="1" res="2.3029383737593889e-03" rms="7.7617213129997253e-02" purity="9.9411761760711670e-01" nType="0">
          <Node pos="l" depth="2" NCoef="0" IVar="-1" Cut="0.0000000000000000e+00" cType="1" res="6.0297179222106934e-01" rms="6.9790735840797424e-02" purity="1.0000000000000000e+00" nType="-99"/>
          <Node pos="r" depth="2" NCoef="0" IVar="-1" Cut="0.0000000000000000e+00" cType="1" res="-9.2603541910648346e-02" rms="7.7551163733005524e-02" purity="9.9354839324951172e-01" nType="-99"/>
        </Node>
        <Node pos="r" depth="1" NCoef="0" IVar="2" Cut="1.7728700637817383e+00" cType="0" res="-1.1022021062672138e-03" rms="2.3924320936203003e-01" purity="1.9343066215515137e-01" nType="0">
          <Node pos="l" depth="2" NCoef="0" IVar="-1" Cut="0.0000000000000000e+00" cType="1" res="3.9579879492521286e-02" rms="2.9083654284477234e-01" purity="3.3593750000000000e-01" nType="-99"/>
          <Node pos="r" depth="2" NCoef="0" IVar="-1" Cut="0.0000000000000000e+00" cType="1" res="-9.5635280013084412e-02" rms="1.8211086094379425e-01" purity="6.8493150174617767e-02" nType="-99"/>
        </Node>
      </Node>
    </BinaryTree>
    <BinaryTree type="DecisionTree" boostWeight="1.0000000000000000e+00" itree="36">
      <Node pos="s" depth="0" NCoef="0" IVar="2" Cut="2.1520011425018311e+00" cType="0" res="3.8383353967219591e-04" rms="1.9347995519638062e-01" purity="5.0000000000000000e-01" nType="0">
        <Node pos="l" depth="1" NCoef="0" IVar="3" Cut="1.9444459676742554e+00" cType="0" res="-2.4843870196491480e-03" rms="2.0264065265655518e-01" purity="7.0491802692413330e-01" nType="0">
          <Node pos="l" depth="2" NCoef="0" IVar="-1" Cut="0.0000000000000000e+00" cType="1" res="5.0508654117584229e-01" rms="3.1839604489505291e-03" purity="1.0000000000000000e+00" nType="-99"/>
          <Node pos="r" depth="2" NCoef="0" IVar="-1" Cut="0.0000000000000000e+00" cType="1" res="-3.7403866648674011e-02" rms="2.8511607646942139e-01" purity="4.1558441519737244e-01" nType="-99"/>
        </Node>
        <Node pos="r" depth="1" NCoef="0" IVar="2" Cut="1.1382451057434082e+00" cType="0" res="2.8071224223822355e-03" rms="1.8535326421260834e-01" purity="3.2686981558799744e-01" nType="0">
          <Node pos="l" depth="2" NCoef="0" IVar="-1" Cut="0.0000000000000000e+00" cType="1" res="-6.3964161090552807e-03" rms="2.1639759838581085e-01" purity="3.9808154106140137e-01" nType="-99"/>
          <Node pos="r" depth="2" NCoef="0" IVar="-1" Cut="0.0000000000000000e+00" cType="1" res="1.4468374848365784e-01" rms="1.3140343129634857e-01" purity="2.2950819134712219e-01" nType="-99"/>
        </Node>
      </Node>
    </BinaryTree>
    <BinaryTree type="DecisionTree" boostWeight="1.0000000000000000e+00" itree="37">
      <Node pos="s" depth="0" NCoef="0" IVar="0" Cut="4.9670958518981934e-01" cType="1" res="3.3682161301840097e-05" rms="1.9306476414203644e-01" purity="5.0000000000000000e-01" nType="0">
        <Node pos="l" depth="1" NCoef="0" IVar="2" Cut="5.6600022315979004e-01" cType="0" res="-1.3380546588450670e-03" rms="2.0536541938781738e-01" purity="6.8946647644042969e-01" nType="0">
          <Node pos="l" depth="2" NCoef="0" IVar="-1" Cut="0.0000000000000000e+00" cType="1" res="-4.0842229500412941e-03" rms="2.1434718370437622e-01" purity="7.2481203079223633e-01" nType="-99"/>
          <Node pos="r" depth="2" NCoef="0" IVar="-1" Cut="0.0000000000000000e+00" cType="1" res="-2.9107201099395752e-01" rms="6.3976041972637177e-02" purity="3.3333334326744080e-01" nType="-99"/>
        </Node>
        <Node pos="r" depth="1" NCoef="0" IVar="0" Cut="7.4413055181503296e-01" cType="1" res="1.7021340318024158e-03" rms="1.7694032192230225e-01" purity="2.6955074071884155e-01" nType="0">
          <Node pos="l" depth="2" NCoef="0" IVar="-1" Cut="0.0000000000000000e+00" cType="1" res="-1.5652732923626900e-02" rms="2.1115514636039734e-01" purity="3.7656903266906738e-01" nType="-99"/>
          <Node pos="r" depth="2" NCoef="0" IVar="-1" Cut="0.0000000000000000e+00" cType="1" res="7.9720415174961090e-02" rms="1.5010245144367218e-01" purity="1.9889502227306366e-01" nType="-99"/>
        </Node>
      </Node>
    </BinaryTree>
    <BinaryTree type="DecisionTree" boostWeight="1.0000000000000000e+00" itree="38">
      <Node pos="s" depth="0" NCoef="0" IVar="0" Cut="9.9038213491439819e-01" cType="1" res="-7.1087299147620797e-05" rms="1.9285969436168671e-01" purity="5.0000000000000000e-01" nType="0">
        <Node pos="l" depth="1" NCoef="0" IVar="0" Cut="-1.2110738456249237e-01" cType="1" res="5.1340920617803931e-04" rms="2.0350772142410278e-01" purity="5.6381118297576904e-01" nType="0">
          <Node pos="l" depth="2" NCoef="0" IVar="-1" Cut="0.0000000000000000e+00" cType="1" res="4.8306263983249664e-02" rms="1.9281117618083954e-01" purity="7.9738563299179077e-01" nType="-99"/>
          <Node pos="r" depth="2" NCoef="0" IVar="-1" Cut="0.0000000000000000e+00" cType="1" res="-5.9355871053412557e-04" rms="2.0510363578796387e-01" purity="5.2774977684020996e-01" nType="-99"/>
        </Node>
        <Node pos="r" depth="1" NCoef="0" IVar="0" Cut="1.1142135858535767e+00" cType="1" res="-3.6278106272220612e-03" rms="1.0722750425338745e-01" purity="1.1170212924480438e-01" nType="0">
          <Node pos="l" depth="2" NCoef="0" IVar="-1" Cut="0.0000000000000000e+00" cType="1" res="-1.4941151440143585e-01" rms="1.5705414116382599e-01" purity="1.8644067645072937e-01" nType="-99"/>
          <Node pos="r" depth="2" NCoef="0" IVar="-1" Cut="0.0000000000000000e+00" cType="1" res="-4.4120032340288162e-02" rms="7.3837175965309143e-02" purity="7.7519379556179047e-02" nType="-99"/>
        </Node>
      </Node>
    </BinaryTree>
    <BinaryTree type="DecisionTree" boostWeight="1.0000000000000000e+00" itree="39">
      <Node pos="s" depth="0" NCoef="0" IVar="0" Cut="3.0370354652404785e-03" cType="1" res="-1.9201355826226063e-05" rms="1.9289164245128632e-01" purity="5.0000000000000000e-01" nType="0">
        <Node pos="l" depth="1" NCoef="0" IVar="1" Cut="1.2731261253356934e+00" cType="1" res="-2.4888806510716677e-03" rms="1.8668082356452942e-01" purity="7.9668051004409790e-01" nType="0">
          <Node pos="l" depth="2" NCoef="0" IVar="-1" Cut="0.0000000000000000e+00" cType="1" res="4.0955666452646255e-02" rms="1.7048551142215729e-01" purity="8.0295568704605103e-01" nType="-99"/>
          <Node pos="r" depth="2" NCoef="0" IVar="-1" Cut="0.0000000000000000e+00" cType="1" res="-2.1972317993640900e-01" rms="2.5451245903968811e-01" purity="7.6315790414810181e-01" nType="-99"/>
        </Node>
        <Node pos="r" depth="1" NCoef="0" IVar="0" Cut="3.7342908978462219e-01" cType="1" res="5.2634649910032749e-04" rms="1.9423259794712067e-01" purity="4.3446379899978638e-01" nType="0">
          <Node pos="l" depth="2" NCoef="0" IVar="-1" Cut="0.0000000000000000e+00" cType="1" res="3.5776503384113312e-02" rms="2.1191339194774628e-01" purity="6.6374266147613525e-01" nType="-99"/>
          <Node pos="r" depth="2" NCoef="0" IVar="-1" Cut="0.0000000000000000e+00" cType="1" res="-9.6144657582044601e-03" rms="1.8558718264102936e-01" purity="3.2977303862571716e-01" nType="-99"/>
        </Node>
      </Node>
    </BinaryTree>
    <BinaryTree type="DecisionTree" boostWeight="1.0000000000000000e+00" itree="40">
      <Node pos="s" depth="0" NCoef="0" IVar="0" Cut="4.9670958518981934e-01" cType="1" res="4.0982024074764922e-05" rms="1.9257755577564240e-01" purity="5.0000000000000000e-01" nType="0">
        <Node pos="l" depth="1" NCoef="0" IVar="1" Cut="1.2243037223815918e+00" cType="0" res="-1.2653949670493603e-03" rms="2.0458844304084778e-01" purity="6.8946647644042969e-01" nType="0">
          <Node pos="l" depth="2" NCoef="0" IVar="-1" Cut="0.0000000000000000e+00" cType="1" res="7.0137873291969299e-02" rms="2.0952686667442322e-01" purity="7.6223778724670410e-01" nType="-99"/>
          <Node pos="r" depth="2" NCoef="0" IVar="-1" Cut="0.0000000000000000e+00" cType="1" res="-3.8034517318010330e-02" rms="2.0331604778766632e-01" purity="6.7176872491836548e-01" nType="-99"/>
        </Node>
        <Node pos="r" depth="1" NCoef="0" IVar="0" Cut="1.2374132871627808e+00" cType="1" res="1.6299363924190402e-03" rms="1.7685970664024353e-01" purity="2.6955074071884155e-01" nType="0">
          <Node pos="l" depth="2" NCoef="0" IVar="-1" Cut="0.0000000000000000e+00" cType="1" res="3.4952219575643539e-02" rms="1.8988251686096191e-01" purity="3.0192306637763977e-01" nType="-99"/>
          <Node pos="r" depth="2" NCoef="0" IVar="-1" Cut="0.0000000000000000e+00" cType="1" res="-2.8401467204093933e-01" rms="2.4151705205440521e-02" purity="6.1728395521640778e-02" nType="-99"/>
        </Node>
      </Node>
    </BinaryTree>
    <BinaryTree type="DecisionTree" boostWeight="1.0000000000000000e+00" itree="41">
      <Node pos="s" depth="0" NCoef="0" IVar="3" Cut="1.9318370819091797e+00" cType="0" res="-1.8488437490304932e-05" rms="1.9240576028823853e-01" purity="5.0000000000000000e-01" nType="0">
        <Node pos="l" depth="1" NCoef="0" IVar="2" Cut="8.1810992956161499e-01" cType="1" res="7.9610839020460844e-04" rms="7.4429824948310852e-02" purity="9.9411761760711670e-01" nType="0">
          <Node pos="l" depth="2" NCoef="0" IVar="-1" Cut="0.0000000000000000e+00" cType="1" res="5.5857884883880615e-01" rms="3.6308277398347855e-02" purity="1.0000000000000000e+00" nType="-99"/>
          <Node pos="r" depth="2" NCoef="0" IVar="-1" Cut="0.0000000000000000e+00" cType="1" res="-4.7783378511667252e-02" rms="7.6994113624095917e-02" purity="9.9354839324951172e-01" nType="-99"/>
        </Node>
        <Node pos="r" depth="1" NCoef="0" IVar="2" Cut="3.6086335182189941e+00" cType="0" res="-5.2389519987627864e-04" rms="2.3780412971973419e-01" purity="1.9343066215515137e-01" nType="0">
          <Node pos="l" depth="2" NCoef="0" IVar="-1" Cut="0.0000000000000000e+00" cType="1" res="1.5501710772514343e-01" rms="1.9816589355468750e-01" purity="6.7346936464309692e-01" nType="-99"/>
          <Node pos="r" depth="2" NCoef="0" IVar="-1" Cut="0.0000000000000000e+00" cType="1" res="-1.7901226878166199e-02" rms="2.4000887572765350e-01" purity="1.6300129890441895e-01" nType="-99"/>
        </Node>
      </Node>
    </BinaryTree>
    <BinaryTree type="DecisionTree" boostWeight="1.0000000000000000e+00" itree="42">
      <Node pos="s" depth="0" NCoef="0" IVar="2" Cut="4.1773300170898438e+00" cType="0" res="2.2335984976962209e-04" rms="1.9242036342620850e-01" purity="5.0000000000000000e-01" nType="0">
        <Node pos="l" depth="1" NCoef="0" IVar="0" Cut="4.7881138324737549e-01" cType="1" res="-8.6742984130978584e-03" rms="1.5091197192668915e-01" purity="8.7931036949157715e-01" nType="0">
          <Node pos="l" depth="2" NCoef="0" IVar="-1" Cut="0.0000000000000000e+00" cType="1" res="-6.6486977040767670e-02" rms="9.8057456314563751e-02" purity="9.5348834991455078e-01" nType="-99"/>
          <Node pos="r" depth="2" NCoef="0" IVar="-1" Cut="0.0000000000000000e+00" cType="1" res="-2.0465260744094849e-01" rms="2.4503824114799500e-01" purity="6.6666668653488159e-01" nType="-99"/>
        </Node>
        <Node pos="r" depth="1" NCoef="0" IVar="2" Cut="2.6539924144744873e+00" cType="0" res="6.2843377236276865e-04" rms="1.9408923387527466e-01" purity="4.8273155093193054e-01" nType="0">
          <Node pos="l" depth="2" NCoef="0" IVar="-1" Cut="0.0000000000000000e+00" cType="1" res="-3.2966189086437225e-02" rms="1.9858519732952118e-01" purity="7.3278236389160156e-01" nType="-99"/>
          <Node pos="r" depth="2" NCoef="0" IVar="-1" Cut="0.0000000000000000e+00" cType="1" res="2.4801632389426231e-02" rms="1.9225282967090607e-01" purity="3.8309550285339355e-01" nType="-99"/>
        </Node>
      </Node>
    </BinaryTree>
    <BinaryTree type="DecisionTree" boostWeight="1.0000000000000000e+00" itree="43">
      <Node pos="s" depth="0" NCoef="0" IVar="2" Cut="2.1520011425018311e+00" cType="0" res="1.7266365830437280e-05" rms="1.9214811921119690e-01" purity="5.0000000000000000e-01" nType="0">
        <Node pos="l" depth="1" NCoef="0" IVar="1" Cut="-1.2682771682739258e-01" cType="1" res="7.2659715078771114e-04" rms="2.0082165300846100e-01" purity="7.0491802692413330e-01" nType="0">
          <Node pos="l" depth="2" NCoef="0" IVar="-1" Cut="0.0000000000000000e+00" cType="1" res="6.6428147256374359e-02" rms="2.0349211990833282e-01" purity="7.0676690340042114e-01" nType="-99"/>
          <Node pos="r" depth="2" NCoef="0" IVar="-1" Cut="0.0000000000000000e+00" cType="1" res="-4.0269076824188232e-02" rms="1.9864256680011749e-01" purity="7.0348834991455078e-01" nType="-99"/>
        </Node>
        <Node pos="r" depth="1" NCoef="0" IVar="1" Cut="-6.0220956802368164e-02" cType="1" res="-5.8202975196763873e-04" rms="1.8450042605400085e-01" purity="3.2686981558799744e-01" nType="0">
          <Node pos="l" depth="2" NCoef="0" IVar="-1" Cut="0.0000000000000000e+00" cType="1" res="-6.1458602547645569e-02" rms="1.8166387081146240e-01" purity="3.3439490199089050e-01" nType="-99"/>
          <Node pos="r" depth="2" NCoef="0" IVar="-1" Cut="0.0000000000000000e+00" cType="1" res="3.0030140653252602e-02" rms="1.8660162389278412e-01" purity="3.2107841968536377e-01" nType="-99"/>
        </Node>
      </Node>
    </BinaryTree>
    <BinaryTree type="DecisionTree" boostWeight="1.0000000000000000e+00" itree="44">
      <Node pos="s" depth="0" NCoef="0" IVar="0" Cut="4.9670958518981934e-01" cType="1" res="1.2174227776995394e-06" rms="1.9212399423122406e-01" purity="5.0000000000000000e-01" nType="0">
        <Node pos="l" depth="1" NCoef="0" IVar="3" Cut="1.9318370819091797e+00" cType="0" res="-5.6061439681798220e-04" rms="2.0402669906616211e-01" purity="6.8946647644042969e-01" nType="0">
          <Node pos="l" depth="2" NCoef="0" IVar="-1" Cut="0.0000000000000000e+00" cType="1" res="7.9392030835151672e-02" rms="6.8770453333854675e-02" purity="9.9476438760757446e-01" nType="-99"/>
          <Node pos="r" depth="2" NCoef="0" IVar="-1" Cut="0.0000000000000000e+00" cType="1" res="-1.2516048736870289e-02" rms="2.8637063503265381e-01" purity="3.5530087351799011e-01" nType="-99"/>
        </Node>
        <Node pos="r" depth="1" NCoef="0" IVar="2" Cut="1.2667205929756165e-01" cType="0" res="6.8457692395895720e-04" rms="1.7656604945659637e-01" purity="2.6955074071884155e-01" nType="0">
          <Node pos="l" depth="2" NCoef="0" IVar="-1" Cut="0.0000000000000000e+00" cType="1" res="1.7572674900293350e-02" rms="1.8414399027824402e-01" purity="2.9166665673255920e-01" nType="-99"/>
          <Node pos="r" depth="2" NCoef="0" IVar="-1" Cut="0.0000000000000000e+00" cType="1" res="-3.2566276192665100e-01" rms="1.8598239868879318e-02" purity="2.0408162847161293e-02" nType="-99"/>
        </Node>
      </Node>
    </BinaryTree>
    <BinaryTree type="DecisionTree" boostWeight="1.0000000000000000e+00" itree="45">
      <Node pos="s" depth="0" NCoef="0" IVar="2" Cut="1.2667205929756165e-01" cType="0" res="-1.0829757229657844e-05" rms="1.9210937619209290e-01" purity="5.0000000000000000e-01" nType="0">
        <Node pos="l" depth="1" NCoef="0" IVar="2" Cut="3.1676485538482666e+00" cType="0" res="-1.1544999142643064e-04" rms="1.9848790764808655e-01" purity="5.2931725978851318e-01" nType="0">
          <Node pos="l" depth="2" NCoef="0" IVar="-1" Cut="0.0000000000000000e+00" cType="1" res="3.2599229365587234e-02" rms="1.4325727522373199e-01" purity="8.1707316637039185e-01" nType="-99"/>
          <Node pos="r" depth="2" NCoef="0" IVar="-1" Cut="0.0000000000000000e+00" cType="1" res="-8.3439489826560020e-03" rms="2.0986542105674744e-01" purity="4.5845845341682434e-01" nType="-99"/>
        </Node>
        <Node pos="r" depth="1" NCoef="0" IVar="1" Cut="1.4205123186111450e+00" cType="0" res="1.4863217948004603e-03" rms="3.5359565168619156e-02" purity="8.0459773540496826e-02" nType="0">
          <Node pos="l" depth="2" NCoef="0" IVar="-1" Cut="0.0000000000000000e+00" cType="1" res="4.2829146981239319e-01" rms="8.8316023349761963e-02" purity="1.0000000149011612e-01" nType="-99"/>
          <Node pos="r" depth="2" NCoef="0" IVar="-1" Cut="0.0000000000000000e+00" cType="1" res="-1.1875110864639282e-01" rms="1.8294356763362885e-02" purity="7.7922075986862183e-02" nType="-99"/>
        </Node>
      </Node>
    </BinaryTree>
    <BinaryTree type="DecisionTree" boostWeight="1.0000000000000000e+00" itree="46">
      <Node pos="s" depth="0" NCoef="0" IVar="2" Cut="4.1773300170898438e+00" cType="0" res="6.4030414250737522e-06" rms="1.9211758673191071e-01" purity="5.0000000000000000e-01" nType="0">
        <Node pos="l" depth="1" NCoef="0" IVar="0" Cut="3.3016405999660492e-02" cType="0" res="-3.3830187749117613e-03" rms="1.4857549965381622e-01" purity="8.7931036949157715e-01" nType="0">
          <Node pos="l" depth="2" NCoef="0" IVar="-1" Cut="0.0000000000000000e+00" cType="1" res="4.6480216085910797e-02" rms="1.4951702952384949e-01" purity="8.8095235824584961e-01" nType="-99"/>
          <Node pos="r" depth="2" NCoef="0" IVar="-1" Cut="0.0000000000000000e+00" cType="1" res="-3.2187733054161072e-01" rms="1.4477840065956116e-01" purity="8.7500000000000000e-01" nType="-99"/>
        </Node>
        <Node pos="r" depth="1" NCoef="0" IVar="2" Cut="1.1364426612854004e+00" cType="0" res="1.6070953279267997e-04" rms="1.9386586546897888e-01" purity="4.8273155093193054e-01" nType="0">
          <Node pos="l" depth="2" NCoef="0" IVar="-1" Cut="0.0000000000000000e+00" cType="1" res="-4.7498447820544243e-03" rms="2.1028928458690643e-01" purity="5.6185567378997803e-01" nType="-99"/>
          <Node pos="r" depth="2" NCoef="0" IVar="-1" Cut="0.0000000000000000e+00" cType="1" res="3.9851978421211243e-02" rms="1.2806378304958344e-01" purity="2.3026315867900848e-01" nType="-99"/>
        </Node>
      </Node>
    </BinaryTree>
    <BinaryTree type="DecisionTree" boostWeight="1.0000000000000000e+00" itree="47">
      <Node pos="s" depth="0" NCoef="0" IVar="0" Cut="3.0370354652404785e-03" cType="1" res="2.2912254280527122e-05" rms="1.9189344346523285e-01" purity="5.0000000000000000e-01" nType="0">
        <Node pos="l" depth="1" NCoef="0" IVar="1" Cut="-5.5743885040283203e-01" cType="1" res="1.2017930857837200e-03" rms="1.8267217278480530e-01" purity="7.9668051004409790e-01" nType="0">
          <Node pos="l" depth="2" NCoef="0" IVar="-1" Cut="0.0000000000000000e+00" cType="1" res="1.4797726273536682e-01" rms="1.5300548076629639e-01" purity="8.5869562625885010e-01" nType="-99"/>
          <Node pos="r" depth="2" NCoef="0" IVar="-1" Cut="0.0000000000000000e+00" cType="1" res="-4.9674894660711288e-02" rms="1.9858127832412720e-01" purity="7.5838923454284668e-01" nType="-99"/>
        </Node>
        <Node pos="r" depth="1" NCoef="0" IVar="2" Cut="2.1520011425018311e+00" cType="0" res="-2.3750048421788961e-04" rms="1.9387030601501465e-01" purity="4.3446379899978638e-01" nType="0">
          <Node pos="l" depth="2" NCoef="0" IVar="-1" Cut="0.0000000000000000e+00" cType="1" res="1.3270065188407898e-02" rms="2.1166591346263885e-01" purity="6.5145230293273926e-01" nType="-99"/>
          <Node pos="r" depth="2" NCoef="0" IVar="-1" Cut="0.0000000000000000e+00" cType="1" res="-1.9986098632216454e-02" rms="1.7852464318275452e-01" purity="2.6272577047348022e-01" nType="-99"/>
        </Node>
      </Node>
    </BinaryTree>
    <BinaryTree type="DecisionTree" boostWeight="1.0000000000000000e+00" itree="48">
      <Node pos="s" depth="0" NCoef="0" IVar="2" Cut="2.1520011425018311e+00" cType="0" res="5.1062386773992330e-05" rms="1.9191940128803253e-01" purity="5.0000000000000000e-01" nType="0">
        <Node pos="l" depth="1" NCoef="0" IVar="0" Cut="9.9005073308944702e-01" cType="1" res="-1.1934334179386497e-03" rms="1.9988511502742767e-01" purity="7.0491802692413330e-01" nType="0">
          <Node pos="l" depth="2" NCoef="0" IVar="-1" Cut="0.0000000000000000e+00" cType="1" res="-5.9288628399372101e-03" rms="2.0715381205081940e-01" purity="7.6330274343490601e-01" nType="-99"/>
          <Node pos="r" depth="2" NCoef="0" IVar="-1" Cut="0.0000000000000000e+00" cType="1" res="-1.8191576004028320e-01" rms="1.2292825430631638e-01" purity="2.1538461744785309e-01" nType="-99"/>
        </Node>
        <Node pos="r" depth="1" NCoef="0" IVar="0" Cut="3.0370354652404785e-03" cType="1" res="1.1025061830878258e-03" rms="1.8491561710834503e-01" purity="3.2686981558799744e-01" nType="0">
          <Node pos="l" depth="2" NCoef="0" IVar="-1" Cut="0.0000000000000000e+00" cType="1" res="6.8883739411830902e-02" rms="2.1554401516914368e-01" purity="6.7256635427474976e-01" nType="-99"/>
          <Node pos="r" depth="2" NCoef="0" IVar="-1" Cut="0.0000000000000000e+00" cType="1" res="-1.0823507182067260e-04" rms="1.7863386869430542e-01" purity="2.6272577047348022e-01" nType="-99"/>
        </Node>
      </Node>
    </BinaryTree>
    <BinaryTree type="DecisionTree" boostWeight="1.0000000000000000e+00" itree="49">
      <Node pos="s" depth="0" NCoef="0" IVar="0" Cut="3.0370354652404785e-03" cType="1" res="-1.7104701328207739e-05" rms="1.9176998734474182e-01" purity="5.0000000000000000e-01" nType="0">
        <Node pos="l" depth="1" NCoef="0" IVar="1" Cut="-2.3880038261413574e+00" cType="1" res="-2.8053412679582834e-03" rms="1.8219389021396637e-01" purity="7.9668051004409790e-01" nType="0">
          <Node pos="l" depth="2" NCoef="0" IVar="-1" Cut="0.0000000000000000e+00" cType="1" res="5.6212961673736572e-01" rms="4.7060839831829071e-02" purity="1.0000000000000000e+00" nType="-99"/>
          <Node pos="r" depth="2" NCoef="0" IVar="-1" Cut="0.0000000000000000e+00" cType="1" res="-5.2532456815242767e-02" rms="1.8610166013240814e-01" purity="7.8695654869079590e-01" nType="-99"/>
        </Node>
        <Node pos="r" depth="1" NCoef="0" IVar="3" Cut="1.9318370819091797e+00" cType="0" res="5.9881189372390509e-04" rms="1.9381614029407501e-01" purity="4.3446379899978638e-01" nType="0">
          <Node pos="l" depth="2" NCoef="0" IVar="-1" Cut="0.0000000000000000e+00" cType="1" res="-1.3836361467838287e-01" rms="8.6950428783893585e-02" purity="9.9180328845977783e-01" nType="-99"/>
          <Node pos="r" depth="2" NCoef="0" IVar="-1" Cut="0.0000000000000000e+00" cType="1" res="1.6163308173418045e-02" rms="2.2958150506019592e-01" purity="1.5310344099998474e-01" nType="-99"/>
        </Node>
      </Node>
    </BinaryTree>
  </Weights>
</MethodSetup>
